<?xml version="1.0"?>
<opencv_storage>
<cascade>
  <stageType>BOOST</stageType>
  <featureType>HAAR</featureType>
  <height>50</height>
  <width>50</width>
  <stageParams>
    <boostType>GAB</boostType>
    <minHitRate>9.9500000476837158e-01</minHitRate>
    <maxFalseAlarm>5.0000000000000000e-01</maxFalseAlarm>
    <weightTrimRate>9.4999999999999996e-01</weightTrimRate>
    <maxDepth>1</maxDepth>
    <maxWeakCount>100</maxWeakCount></stageParams>
  <featureParams>
    <maxCatCount>0</maxCatCount>
    <featSize>1</featSize>
    <mode>BASIC</mode></featureParams>
  <stageNum>6</stageNum>
  <stages>
    <!-- stage 0 -->
    <_>
      <maxWeakCount>4</maxWeakCount>
      <stageThreshold>-4.9798288941383362e-01</stageThreshold>
      <weakClassifiers>
        <_>
          <internalNodes>
            0 -1 7 -5.9650123119354248e-02</internalNodes>
          <leafValues>
            9.0949225425720215e-01 -5.4545456171035767e-01</leafValues></_>
        <_>
          <internalNodes>
            0 -1 5 -2.2194452583789825e-02</internalNodes>
          <leafValues>
            7.5300824642181396e-01 -3.7504827976226807e-01</leafValues></_>
        <_>
          <internalNodes>
            0 -1 19 1.1091267515439540e-04</internalNodes>
          <leafValues>
            -3.2446742057800293e-01 8.4273225069046021e-01</leafValues></_>
        <_>
          <internalNodes>
            0 -1 6 1.4498193195322528e-05</internalNodes>
          <leafValues>
            -3.6761260032653809e-01 7.4698734283447266e-01</leafValues></_></weakClassifiers></_>
    <!-- stage 1 -->
    <_>
      <maxWeakCount>6</maxWeakCount>
      <stageThreshold>-9.1579443216323853e-01</stageThreshold>
      <weakClassifiers>
        <_>
          <internalNodes>
            0 -1 31 1.9472397863864899e-02</internalNodes>
          <leafValues>
            -6.8265682458877563e-01 7.2254335880279541e-01</leafValues></_>
        <_>
          <internalNodes>
            0 -1 9 -9.4846459105610847e-03</internalNodes>
          <leafValues>
            5.3202456235885620e-01 -7.7803456783294678e-01</leafValues></_>
        <_>
          <internalNodes>
            0 -1 4 -6.3325069844722748e-02</internalNodes>
          <leafValues>
            6.0709309577941895e-01 -5.0062406063079834e-01</leafValues></_>
        <_>
          <internalNodes>
            0 -1 15 1.0275054955855012e-04</internalNodes>
          <leafValues>
            -3.6350440979003906e-01 7.2855377197265625e-01</leafValues></_>
        <_>
          <internalNodes>
            0 -1 22 1.6539284843020141e-04</internalNodes>
          <leafValues>
            -4.2690575122833252e-01 7.8313267230987549e-01</leafValues></_>
        <_>
          <internalNodes>
            0 -1 16 -3.8742939068470150e-05</internalNodes>
          <leafValues>
            -5.5072891712188721e-01 5.2587199211120605e-01</leafValues></_></weakClassifiers></_>
    <!-- stage 2 -->
    <_>
      <maxWeakCount>6</maxWeakCount>
      <stageThreshold>-1.2799645662307739e+00</stageThreshold>
      <weakClassifiers>
        <_>
          <internalNodes>
            0 -1 24 1.2971324846148491e-02</internalNodes>
          <leafValues>
            -5.7575756311416626e-01 6.1290323734283447e-01</leafValues></_>
        <_>
          <internalNodes>
            0 -1 21 -1.4195412397384644e-02</internalNodes>
          <leafValues>
            5.1489335298538208e-01 -6.4439982175827026e-01</leafValues></_>
        <_>
          <internalNodes>
            0 -1 28 6.3540437622577883e-06</internalNodes>
          <leafValues>
            -3.2470753788948059e-01 8.6154812574386597e-01</leafValues></_>
        <_>
          <internalNodes>
            0 -1 30 5.1557958613557275e-06</internalNodes>
          <leafValues>
            -2.6010397076606750e-01 8.3125805854797363e-01</leafValues></_>
        <_>
          <internalNodes>
            0 -1 30 -5.0914927669509780e-06</internalNodes>
          <leafValues>
            7.7724438905715942e-01 -3.1375876069068909e-01</leafValues></_>
        <_>
          <internalNodes>
            0 -1 23 1.3938863412477076e-04</internalNodes>
          <leafValues>
            -3.4749257564544678e-01 7.5621372461318970e-01</leafValues></_></weakClassifiers></_>
    <!-- stage 3 -->
    <_>
      <maxWeakCount>7</maxWeakCount>
      <stageThreshold>-5.2103692293167114e-01</stageThreshold>
      <weakClassifiers>
        <_>
          <internalNodes>
            0 -1 17 -7.3916371911764145e-03</internalNodes>
          <leafValues>
            5.7914340496063232e-01 -4.7826087474822998e-01</leafValues></_>
        <_>
          <internalNodes>
            0 -1 25 -1.6267958562821150e-04</internalNodes>
          <leafValues>
            8.5548090934753418e-01 -2.7909347414970398e-01</leafValues></_>
        <_>
          <internalNodes>
            0 -1 3 -1.4857450127601624e-01</internalNodes>
          <leafValues>
            6.8105053901672363e-01 -3.6801105737686157e-01</leafValues></_>
        <_>
          <internalNodes>
            0 -1 34 6.4405721786897629e-06</internalNodes>
          <leafValues>
            -2.9616114497184753e-01 7.5513279438018799e-01</leafValues></_>
        <_>
          <internalNodes>
            0 -1 14 1.3898957986384630e-03</internalNodes>
          <leafValues>
            -6.1763888597488403e-01 3.9003172516822815e-01</leafValues></_>
        <_>
          <internalNodes>
            0 -1 33 5.6447042879881337e-06</internalNodes>
          <leafValues>
            -3.2560437917709351e-01 7.4965029954910278e-01</leafValues></_>
        <_>
          <internalNodes>
            0 -1 32 -6.2333078858500812e-06</internalNodes>
          <leafValues>
            8.6111485958099365e-01 -2.1299932897090912e-01</leafValues></_></weakClassifiers></_>
    <!-- stage 4 -->
    <_>
      <maxWeakCount>7</maxWeakCount>
      <stageThreshold>-8.9998090267181396e-01</stageThreshold>
      <weakClassifiers>
        <_>
          <internalNodes>
            0 -1 29 7.5360476970672607e-02</internalNodes>
          <leafValues>
            -4.1018766164779663e-01 8.2254195213317871e-01</leafValues></_>
        <_>
          <internalNodes>
            0 -1 0 -3.2870635390281677e-02</internalNodes>
          <leafValues>
            6.5616571903228760e-01 -3.4307348728179932e-01</leafValues></_>
        <_>
          <internalNodes>
            0 -1 2 -8.9401617646217346e-02</internalNodes>
          <leafValues>
            6.8457978963851929e-01 -3.8388571143150330e-01</leafValues></_>
        <_>
          <internalNodes>
            0 -1 10 -2.6070627427543513e-05</internalNodes>
          <leafValues>
            4.5409694314002991e-01 -5.3798776865005493e-01</leafValues></_>
        <_>
          <internalNodes>
            0 -1 13 1.3733584200963378e-03</internalNodes>
          <leafValues>
            -6.9793647527694702e-01 3.7105089426040649e-01</leafValues></_>
        <_>
          <internalNodes>
            0 -1 11 1.1249725520610809e-01</internalNodes>
          <leafValues>
            -2.5089550018310547e-01 7.7160274982452393e-01</leafValues></_>
        <_>
          <internalNodes>
            0 -1 20 -6.1471819877624512e-02</internalNodes>
          <leafValues>
            8.8969480991363525e-01 -2.6733815670013428e-01</leafValues></_></weakClassifiers></_>
    <!-- stage 5 -->
    <_>
      <maxWeakCount>6</maxWeakCount>
      <stageThreshold>-7.5900459289550781e-01</stageThreshold>
      <weakClassifiers>
        <_>
          <internalNodes>
            0 -1 27 8.6894199252128601e-02</internalNodes>
          <leafValues>
            -2.9736512899398804e-01 7.8799492120742798e-01</leafValues></_>
        <_>
          <internalNodes>
            0 -1 12 3.9868362364359200e-05</internalNodes>
          <leafValues>
            -5.3698432445526123e-01 6.0854393243789673e-01</leafValues></_>
        <_>
          <internalNodes>
            0 -1 8 1.0814814595505595e-04</internalNodes>
          <leafValues>
            -3.5167092084884644e-01 5.4613047838211060e-01</leafValues></_>
        <_>
          <internalNodes>
            0 -1 18 3.7076849490404129e-02</internalNodes>
          <leafValues>
            -5.3434234857559204e-01 3.7864297628402710e-01</leafValues></_>
        <_>
          <internalNodes>
            0 -1 26 1.7910140741150826e-05</internalNodes>
          <leafValues>
            -5.1702290773391724e-01 5.4596096277236938e-01</leafValues></_>
        <_>
          <internalNodes>
            0 -1 1 -7.6040068961447105e-06</internalNodes>
          <leafValues>
            5.8057969808578491e-01 -3.2997462153434753e-01</leafValues></_></weakClassifiers></_></stages>
  <features>
    <_>
      <rects>
        <_>
          0 0 20 43 -1.</_>
        <_>
          10 0 10 43 2.</_></rects>
      <tilted>0</tilted></_>
    <_>
      <rects>
        <_>
          0 1 50 2 -1.</_>
        <_>
          0 2 50 1 2.</_></rects>
      <tilted>0</tilted></_>
    <_>
      <rects>
        <_>
          0 8 38 23 -1.</_>
        <_>
          19 8 19 23 2.</_></rects>
      <tilted>0</tilted></_>
    <_>
      <rects>
        <_>
          0 11 48 19 -1.</_>
        <_>
          16 11 16 19 3.</_></rects>
      <tilted>0</tilted></_>
    <_>
      <rects>
        <_>
          0 11 32 23 -1.</_>
        <_>
          16 11 16 23 2.</_></rects>
      <tilted>0</tilted></_>
    <_>
      <rects>
        <_>
          0 15 28 22 -1.</_>
        <_>
          14 15 14 22 2.</_></rects>
      <tilted>0</tilted></_>
    <_>
      <rects>
        <_>
          0 43 42 2 -1.</_>
        <_>
          0 44 42 1 2.</_></rects>
      <tilted>0</tilted></_>
    <_>
      <rects>
        <_>
          1 7 48 27 -1.</_>
        <_>
          17 7 16 27 3.</_></rects>
      <tilted>0</tilted></_>
    <_>
      <rects>
        <_>
          1 34 39 2 -1.</_>
        <_>
          1 35 39 1 2.</_></rects>
      <tilted>0</tilted></_>
    <_>
      <rects>
        <_>
          2 0 42 16 -1.</_>
        <_>
          2 8 42 8 2.</_></rects>
      <tilted>0</tilted></_>
    <_>
      <rects>
        <_>
          4 0 36 6 -1.</_>
        <_>
          4 3 36 3 2.</_></rects>
      <tilted>0</tilted></_>
    <_>
      <rects>
        <_>
          5 0 44 27 -1.</_>
        <_>
          27 0 22 27 2.</_></rects>
      <tilted>0</tilted></_>
    <_>
      <rects>
        <_>
          6 42 42 8 -1.</_>
        <_>
          6 46 42 4 2.</_></rects>
      <tilted>0</tilted></_>
    <_>
      <rects>
        <_>
          7 29 34 20 -1.</_>
        <_>
          7 39 34 10 2.</_></rects>
      <tilted>0</tilted></_>
    <_>
      <rects>
        <_>
          7 38 41 12 -1.</_>
        <_>
          7 44 41 6 2.</_></rects>
      <tilted>0</tilted></_>
    <_>
      <rects>
        <_>
          8 38 34 2 -1.</_>
        <_>
          8 39 34 1 2.</_></rects>
      <tilted>0</tilted></_>
    <_>
      <rects>
        <_>
          10 0 16 1 -1.</_>
        <_>
          18 0 8 1 2.</_></rects>
      <tilted>0</tilted></_>
    <_>
      <rects>
        <_>
          10 0 36 12 -1.</_>
        <_>
          10 6 36 6 2.</_></rects>
      <tilted>0</tilted></_>
    <_>
      <rects>
        <_>
          10 12 40 38 -1.</_>
        <_>
          10 31 40 19 2.</_></rects>
      <tilted>0</tilted></_>
    <_>
      <rects>
        <_>
          10 37 25 2 -1.</_>
        <_>
          10 38 25 1 2.</_></rects>
      <tilted>0</tilted></_>
    <_>
      <rects>
        <_>
          11 14 34 19 -1.</_>
        <_>
          28 14 17 19 2.</_></rects>
      <tilted>0</tilted></_>
    <_>
      <rects>
        <_>
          12 0 27 14 -1.</_>
        <_>
          12 7 27 7 2.</_></rects>
      <tilted>0</tilted></_>
    <_>
      <rects>
        <_>
          12 14 20 2 -1.</_>
        <_>
          12 14 10 1 2.</_>
        <_>
          22 15 10 1 2.</_></rects>
      <tilted>0</tilted></_>
    <_>
      <rects>
        <_>
          14 18 18 3 -1.</_>
        <_>
          14 19 18 1 3.</_></rects>
      <tilted>0</tilted></_>
    <_>
      <rects>
        <_>
          14 26 27 24 -1.</_>
        <_>
          14 38 27 12 2.</_></rects>
      <tilted>0</tilted></_>
    <_>
      <rects>
        <_>
          17 31 26 3 -1.</_>
        <_>
          17 32 26 1 3.</_></rects>
      <tilted>0</tilted></_>
    <_>
      <rects>
        <_>
          17 40 24 4 -1.</_>
        <_>
          17 42 24 2 2.</_></rects>
      <tilted>0</tilted></_>
    <_>
      <rects>
        <_>
          18 7 32 24 -1.</_>
        <_>
          34 7 16 24 2.</_></rects>
      <tilted>0</tilted></_>
    <_>
      <rects>
        <_>
          18 19 5 2 -1.</_>
        <_>
          18 20 5 1 2.</_></rects>
      <tilted>0</tilted></_>
    <_>
      <rects>
        <_>
          20 5 30 31 -1.</_>
        <_>
          35 5 15 31 2.</_></rects>
      <tilted>0</tilted></_>
    <_>
      <rects>
        <_>
          22 21 3 3 -1.</_>
        <_>
          22 22 3 1 3.</_></rects>
      <tilted>0</tilted></_>
    <_>
      <rects>
        <_>
          24 10 26 25 -1.</_>
        <_>
          37 10 13 25 2.</_></rects>
      <tilted>0</tilted></_>
    <_>
      <rects>
        <_>
          27 37 3 12 -1.</_>
        <_>
          27 43 3 6 2.</_></rects>
      <tilted>0</tilted></_>
    <_>
      <rects>
        <_>
          28 25 2 3 -1.</_>
        <_>
          28 26 2 1 3.</_></rects>
      <tilted>0</tilted></_>
    <_>
      <rects>
        <_>
          29 24 4 3 -1.</_>
        <_>
          29 25 4 1 3.</_></rects>
      <tilted>0</tilted></_></features></cascade>
</opencv_storage>
